{
    "Layers": [
        null,
        null,
        null,
        null,
        {
            "Biases": [
                {
                    "weight": -0.40397138447724074
                },
                {
                    "weight": 0.1883752201197528
                },
                {
                    "weight": 0.4192685165480666
                },
                {
                    "weight": 0.1738938393058098
                },
                {
                    "weight": 0.2263443394991731
                },
                {
                    "weight": 0.13440411543468447
                },
                {
                    "weight": 0.21322068034838498
                },
                {
                    "weight": -0.0831270487786902
                },
                {
                    "weight": 0.4317339404150911
                },
                {
                    "weight": -0.4132510545718209
                },
                {
                    "weight": 0.24592457934988818
                },
                {
                    "weight": -0.31279511173974917
                },
                {
                    "weight": 0.2685042993623432
                },
                {
                    "weight": -0.18529670678510643
                },
                {
                    "weight": -0.20516220504133592
                },
                {
                    "weight": 0.274935570480172
                },
                {
                    "weight": -0.008545563773073564
                },
                {
                    "weight": -0.20177870368103032
                },
                {
                    "weight": 0.42947664264015634
                },
                {
                    "weight": -0.46707840479318796
                },
                {
                    "weight": -0.17683434868611944
                },
                {
                    "weight": -0.27222625790215
                },
                {
                    "weight": -0.22670537882071806
                },
                {
                    "weight": 0.3435201266945215
                },
                {
                    "weight": -0.18218554256507166
                },
                {
                    "weight": 0.04379613880121657
                },
                {
                    "weight": 0.21056107026461163
                },
                {
                    "weight": -0.18644698012040964
                },
                {
                    "weight": 0.48535677474453065
                },
                {
                    "weight": -0.4493757548642085
                },
                {
                    "weight": 0.3820036552572009
                },
                {
                    "weight": 0.17643027605155262
                },
                {
                    "weight": 0.24466936752186777
                },
                {
                    "weight": -0.0016807609586574391
                },
                {
                    "weight": 0.1563935127687227
                },
                {
                    "weight": 0.04932918351051512
                },
                {
                    "weight": -0.32074047471605027
                },
                {
                    "weight": 0.3645143262487859
                },
                {
                    "weight": 0.1273620257410171
                },
                {
                    "weight": -0.09373260182178769
                },
                {
                    "weight": -0.17548901989883597
                },
                {
                    "weight": 0.35453146607206626
                },
                {
                    "weight": 0.3346993330850358
                },
                {
                    "weight": 0.42350164188615746
                },
                {
                    "weight": 0.24660435949273135
                },
                {
                    "weight": -0.033113138447979806
                },
                {
                    "weight": 0.27507209339056365
                },
                {
                    "weight": 0.2794187275707712
                },
                {
                    "weight": -0.043572898907280756
                },
                {
                    "weight": 0.11860187251192116
                },
                {
                    "weight": 0.37538907321112863
                },
                {
                    "weight": -0.2515263334436361
                },
                {
                    "weight": 0.4707499898497684
                },
                {
                    "weight": 0.4096142111386913
                },
                {
                    "weight": 0.09614358947532516
                },
                {
                    "weight": 0.37496794913992576
                },
                {
                    "weight": 0.24537269792939553
                },
                {
                    "weight": 0.33637044163898383
                },
                {
                    "weight": -0.39793945228597505
                },
                {
                    "weight": -0.152349739485714
                },
                {
                    "weight": -0.01428070552994878
                },
                {
                    "weight": -0.23646368661670192
                },
                {
                    "weight": 0.36390843013040286
                },
                {
                    "weight": 0.4009121405473987
                },
                {
                    "weight": -0.14213232801960088
                },
                {
                    "weight": -0.43453048783315495
                },
                {
                    "weight": 0.31286123691296797
                },
                {
                    "weight": -0.22470451408858197
                },
                {
                    "weight": -0.06782172458272732
                },
                {
                    "weight": -0.3419872001872206
                },
                {
                    "weight": 0.06579808701863658
                },
                {
                    "weight": -0.4772600100975677
                },
                {
                    "weight": -0.48305175987249777
                },
                {
                    "weight": 0.13828373885817935
                },
                {
                    "weight": 0.33450540112280797
                },
                {
                    "weight": -0.45357378128392467
                },
                {
                    "weight": 0.106336165561585
                },
                {
                    "weight": -0.37638555507247906
                },
                {
                    "weight": 0.20018154732243498
                },
                {
                    "weight": 0.156885549708078
                },
                {
                    "weight": -0.1706801922259114
                },
                {
                    "weight": -0.3886559387464646
                },
                {
                    "weight": -0.3801681407520192
                },
                {
                    "weight": 0.4557239139968872
                },
                {
                    "weight": 0.30064744558777856
                },
                {
                    "weight": 0.3615251712467967
                },
                {
                    "weight": 0.4771498397759558
                },
                {
                    "weight": -0.14946448513690946
                },
                {
                    "weight": 0.14919591693926387
                },
                {
                    "weight": 0.33979080677067386
                },
                {
                    "weight": -0.1959060557105949
                },
                {
                    "weight": 0.05691590960510959
                },
                {
                    "weight": 0.05135746349082834
                },
                {
                    "weight": 0.009957019197813381
                },
                {
                    "weight": -0.4105839662344064
                },
                {
                    "weight": -0.058500941380049847
                },
                {
                    "weight": -0.16476514182754914
                },
                {
                    "weight": 0.28843840117574593
                },
                {
                    "weight": 0.11113480440033877
                },
                {
                    "weight": -0.01620531883702837
                },
                {
                    "weight": -0.2864092399494115
                },
                {
                    "weight": 0.0661512676669975
                },
                {
                    "weight": 0.018322789248964032
                },
                {
                    "weight": -0.3579044053514123
                },
                {
                    "weight": 0.05039557972596516
                },
                {
                    "weight": -0.22568114781022203
                },
                {
                    "weight": 0.3457681446159475
                },
                {
                    "weight": -0.1723564631012667
                },
                {
                    "weight": -0.159890570418988
                },
                {
                    "weight": 0.10747646178886244
                },
                {
                    "weight": -0.2079162807727653
                },
                {
                    "weight": -0.16401286239456142
                },
                {
                    "weight": -0.26972079297668444
                },
                {
                    "weight": 0.34492004000296683
                },
                {
                    "weight": -0.17390688872806595
                },
                {
                    "weight": -0.46325552398929365
                },
                {
                    "weight": 0.4698203567159756
                },
                {
                    "weight": 0.2521863151025078
                },
                {
                    "weight": 0.2500382706472397
                },
                {
                    "weight": -0.40539090775299325
                },
                {
                    "weight": -0.013907032896983819
                },
                {
                    "weight": 0.32965605537678294
                },
                {
                    "weight": -0.1590215654024405
                },
                {
                    "weight": 0.18237943816295893
                },
                {
                    "weight": 0.4212179342652083
                },
                {
                    "weight": -0.2991365863770167
                },
                {
                    "weight": 0.009614920641197797
                },
                {
                    "weight": 0.2641068918605759
                },
                {
                    "weight": 0.04138166671330025
                },
                {
                    "weight": 0.22483434298517377
                },
                {
                    "weight": -0.32482965084245075
                },
                {
                    "weight": -0.15618719799883987
                },
                {
                    "weight": 0.3943206285150246
                },
                {
                    "weight": -0.3286863070156344
                },
                {
                    "weight": -0.4977917851750093
                },
                {
                    "weight": 0.060355067888295456
                },
                {
                    "weight": -0.03347793891614779
                },
                {
                    "weight": -0.09098335359165166
                },
                {
                    "weight": 0.24470520441640445
                },
                {
                    "weight": -0.14434672264176734
                },
                {
                    "weight": 0.07364178999634488
                },
                {
                    "weight": 0.03094010880403924
                },
                {
                    "weight": -0.26450356648615436
                },
                {
                    "weight": 0.26821937501663146
                },
                {
                    "weight": 0.017959079539516587
                },
                {
                    "weight": -0.4636378768113087
                },
                {
                    "weight": -0.41951992229930835
                },
                {
                    "weight": 0.41747220600919893
                },
                {
                    "weight": 0.49338589002423816
                },
                {
                    "weight": -0.20177608533418542
                },
                {
                    "weight": -0.06287720377724293
                },
                {
                    "weight": 0.4693444229856712
                },
                {
                    "weight": -0.4712205927057518
                },
                {
                    "weight": 0.33629662127388116
                },
                {
                    "weight": -0.2563574055201584
                },
                {
                    "weight": 0.3320305746382815
                },
                {
                    "weight": -0.33221261288436404
                },
                {
                    "weight": -0.33288410782750033
                },
                {
                    "weight": 0.05657323138014757
                },
                {
                    "weight": -0.12696107776792384
                },
                {
                    "weight": 0.30878697604233873
                },
                {
                    "weight": 0.3461685162748259
                },
                {
                    "weight": 0.10958423242030492
                },
                {
                    "weight": 0.0726367532221105
                },
                {
                    "weight": -0.04050492023998485
                },
                {
                    "weight": -0.024393334030042787
                },
                {
                    "weight": 0.35763748859278155
                },
                {
                    "weight": -0.35185839895667803
                },
                {
                    "weight": 0.06725173797842542
                },
                {
                    "weight": 0.1400729096337586
                },
                {
                    "weight": 0.045494085977532295
                },
                {
                    "weight": 0.46480844601736154
                },
                {
                    "weight": 0.0715548542341289
                },
                {
                    "weight": 0.4287093814331115
                },
                {
                    "weight": 0.1592386852473322
                },
                {
                    "weight": 0.426966736162797
                },
                {
                    "weight": 0.10998531368910797
                },
                {
                    "weight": -0.14440714504484167
                },
                {
                    "weight": 0.43430233238662125
                },
                {
                    "weight": 0.07283639439026328
                },
                {
                    "weight": -0.1953764527573949
                },
                {
                    "weight": 0.16309709032097952
                },
                {
                    "weight": -0.17206489941437325
                },
                {
                    "weight": 0.3564081847672014
                },
                {
                    "weight": -0.4045826582868518
                },
                {
                    "weight": 0.33783828726683657
                },
                {
                    "weight": 0.21321180551708732
                },
                {
                    "weight": 0.3299215905167097
                },
                {
                    "weight": -0.22168631207219516
                },
                {
                    "weight": 0.05372538245594305
                },
                {
                    "weight": -0.4463770261532098
                },
                {
                    "weight": 0.2502698476767647
                },
                {
                    "weight": -0.29158189043261873
                },
                {
                    "weight": 0.34048942396735976
                },
                {
                    "weight": 0.28232381425351455
                },
                {
                    "weight": -0.12921457403026518
                },
                {
                    "weight": 0.002150647953749343
                },
                {
                    "weight": -0.23938250012636458
                },
                {
                    "weight": -0.10530302831271666
                },
                {
                    "weight": 0.2819359313789836
                }
            ],
            "Perceptrons": [
                {
                    "Weights": [
                        {
                            "weight": -0.1632341795279013
                        },
                        {
                            "weight": -0.052409983997154005
                        },
                        {
                            "weight": 0.04068020130222571
                        },
                        {
                            "weight": -0.540951965091784
                        },
                        {
                            "weight": -0.3957399372616142
                        },
                        {
                            "weight": 0.3895021013244395
                        },
                        {
                            "weight": -0.3656482986683035
                        },
                        {
                            "weight": 0.31033615400162257
                        },
                        {
                            "weight": 0.40258973092604744
                        },
                        {
                            "weight": -0.5726270584458535
                        }
                    ]
                },
                {
                    "Weights": [
                        {
                            "weight": -0.017877033624830733
                        },
                        {
                            "weight": 0.09482160178777226
                        },
                        {
                            "weight": -0.21462722701339623
                        },
                        {
                            "weight": -0.4217408322356842
                        },
                        {
                            "weight": 0.29851802426662244
                        },
                        {
                            "weight": 0.18978713269797248
                        },
                        {
                            "weight": -0.27747941209875165
                        },
                        {
                            "weight": -0.1868577055535544
                        },
                        {
                            "weight": 0.16599646689321818
                        },
                        {
                            "weight": -0.4027586003399061
                        }
                    ]
                },
                {
                    "Weights": [
                        {
                            "weight": 0.11847841481825476
                        },
                        {
                            "weight": 0.364751241484116
                        },
                        {
                            "weight": -0.14634647243272225
                        },
                        {
                            "weight": 0.31048475915578194
                        },
                        {
                            "weight": -0.25982087937197135
                        },
                        {
                            "weight": 0.30952231959397103
                        },
                        {
                            "weight": -0.024988008850290254
                        },
                        {
                            "weight": -0.6150833486372941
                        },
                        {
                            "weight": -0.10143369017961847
                        },
                        {
                            "weight": 0.16610358283487048
                        }
                    ]
                },
                {
                    "Weights": [
                        {
                            "weight": 0.14280254193000178
                        },
                        {
                            "weight": -0.44133213567540325
                        },
                        {
                            "weight": -0.2611397668536249
                        },
                        {
                            "weight": -0.3203777546992622
                        },
                        {
                            "weight": -0.16687862235516554
                        },
                        {
                            "weight": -0.10386701477544173
                        },
                        {
                            "weight": -0.3525702693775971
                        },
                        {
                            "weight": 0.04168322640004664
                        },
                        {
                            "weight": 0.36742113101115037
                        },
                        {
                            "weight": 0.45196501107774506
                        }
                    ]
                },
                {
                    "Weights": [
                        {
                            "weight": -0.4538613131937623
                        },
                        {
                            "weight": -0.2794225957449101
                        },
                        {
                            "weight": -0.14762188934448772
                        },
                        {
                            "weight": 0.38545606503357155
                        },
                        {
                            "weight": 0.2981168738606198
                        },
                        {
                            "weight": -0.07529816553512114
                        },
                        {
                            "weight": -0.28383942905728676
                        },
                        {
                            "weight": -0.09782462545056532
                        },
                        {
                            "weight": -0.23084705007007783
                        },
                        {
                            "weight": -0.20934189651832383
                        }
                    ]
                },
                {
                    "Weights": [
                        {
                            "weight": 0.08393660458438969
                        },
                        {
                            "weight": -0.5192828620976779
                        },
                        {
                            "weight": 0.23888379871961404
                        },
                        {
                            "weight": -0.23231186210559618
                        },
                        {
                            "weight": 0.4179590426292185
                        },
                        {
                            "weight": -0.2871392979388971
                        },
                        {
                            "weight": -0.05323583019239872
                        },
                        {
                            "weight": 0.14891483376911124
                        },
                        {
                            "weight": -0.28176810123823876
                        },
                        {
                            "weight": -0.48186076000059624
                        }
                    ]
                },
                {
                    "Weights": [
                        {
                            "weight": -0.41658563271416954
                        },
                        {
                            "weight": 0.2612860022939218
                        },
                        {
                            "weight": -0.6590530259022386
                        },
                        {
                            "weight": -0.10619417517919343
                        },
                        {
                            "weight": -0.2611220715693283
                        },
                        {
                            "weight": 0.1040419615145441
                        },
                        {
                            "weight": 0.08172184354643657
                        },
                        {
                            "weight": 0.3339737428772279
                        },
                        {
                            "weight": 0.4628411775613761
                        },
                        {
                            "weight": 0.17039319032997002
                        }
                    ]
                },
                {
                    "Weights": [
                        {
                            "weight": -0.20412999647637167
                        },
                        {
                            "weight": -0.2956377039673652
                        },
                        {
                            "weight": 0.402923046130284
                        },
                        {
                            "weight": -0.026965321285748738
                        },
                        {
                            "weight": 0.46188872024538175
                        },
                        {
                            "weight": 0.09833131172742256
                        },
                        {
                            "weight": 0.20723951064001092
                        },
                        {
                            "weight": -0.2880102983382266
                        },
                        {
                            "weight": -0.20702681433239906
                        },
                        {
                            "weight": -0.4244595745060834
                        }
                    ]
                },
                {
                    "Weights": [
                        {
                            "weight": 0.07880095011137477
                        },
                        {
                            "weight": -0.20626836837578028
                        },
                        {
                            "weight": 0.3583344068229954
                        },
                        {
                            "weight": -0.2768554136014338
                        },
                        {
                            "weight": 0.47768403748302585
                        },
                        {
                            "weight": -0.01674312459871964
                        },
                        {
                            "weight": -0.42672342997687834
                        },
                        {
                            "weight": -0.30425357655499785
                        },
                        {
                            "weight": -0.5168747919367755
                        },
                        {
                            "weight": 0.20288556964374255
                        }
                    ]
                },
                {
                    "Weights": [
                        {
                            "weight": 0.10302237916089302
                        },
                        {
                            "weight": -0.020067187160468875
                        },
                        {
                            "weight": 0.46479925493328955
                        },
                        {
                            "weight": 0.46559933999714725
                        },
                        {
                            "weight": -0.2583982051257387
                        },
                        {
                            "weight": 0.22174030354349408
                        },
                        {
                            "weight": 0.1379750612136468
                        },
                        {
                            "weight": -0.4952541984139393
                        },
                        {
                            "weight": 0.16884702476015753
                        },
                        {
                            "weight": 0.13891795280406627
                        }
                    ]
                },
                {
                    "Weights": [
                        {
                            "weight": 0.22560533809481056
                        },
                        {
                            "weight": -0.02957512697308345
                        },
                        {
                            "weight": 0.40005145572691814
                        },
                        {
                            "weight": -0.5677373328663111
                        },
                        {
                            "weight": -0.044138685229385105
                        },
                        {
                            "weight": -0.04206036666442937
                        },
                        {
                            "weight": 0.3073277518345456
                        },
                        {
                            "weight": -0.05802697879561074
                        },
                        {
                            "weight": 0.32276074440162505
                        },
                        {
                            "weight": -0.33971481744645493
                        }
                    ]
                },
                {
                    "Weights": [
                        {
                            "weight": -0.5386328578454999
                        },
                        {
                            "weight": -0.04538717361320689
                        },
                        {
                            "weight": -0.47269041744800866
                        },
                        {
                            "weight": -0.18430309228393646
                        },
                        {
                            "weight": -0.06255786074027908
                        },
                        {
                            "weight": -0.0696629238755157
                        },
                        {
                            "weight": -0.3082049190462097
                        },
                        {
                            "weight": -0.5073518777424518
                        },
                        {
                            "weight": -0.5221969381768483
                        },
                        {
                            "weight": 0.1515167553361051
                        }
                    ]
                },
                {
                    "Weights": [
                        {
                            "weight": 0.09482258503207694
                        },
                        {
                            "weight": -0.22816150569146568
                        },
                        {
                            "weight": 0.09800978162861174
                        },
                        {
                            "weight": -0.09066543811067895
                        },
                        {
                            "weight": -0.578737567290068
                        },
                        {
                            "weight": -0.2015495054382413
                        },
                        {
                            "weight": 0.627927485698845
                        },
                        {
                            "weight": 0.03293925979907021
                        },
                        {
                            "weight": -0.1957428589982345
                        },
                        {
                            "weight": -0.42170150522612726
                        }
                    ]
                },
                {
                    "Weights": [
                        {
                            "weight": -0.39014220952274015
                        },
                        {
                            "weight": -0.3334803662140223
                        },
                        {
                            "weight": 0.16753820703302874
                        },
                        {
                            "weight": 0.34596487209714216
                        },
                        {
                            "weight": -0.4882363676658891
                        },
                        {
                            "weight": -0.38728258309216457
                        },
                        {
                            "weight": -0.19005572706244916
                        },
                        {
                            "weight": 0.11893253124859944
                        },
                        {
                            "weight": 0.21493097377566983
                        },
                        {
                            "weight": -0.5448645702898719
                        }
                    ]
                },
                {
                    "Weights": [
                        {
                            "weight": 0.14537012444851186
                        },
                        {
                            "weight": -0.17303548396568488
                        },
                        {
                            "weight": 0.22559162705997765
                        },
                        {
                            "weight": 0.2541905138835316
                        },
                        {
                            "weight": -0.6033903725871618
                        },
                        {
                            "weight": -0.12892914579424847
                        },
                        {
                            "weight": 0.5862864113350678
                        },
                        {
                            "weight": -0.1811471791835361
                        },
                        {
                            "weight": -0.41153161025442037
                        },
                        {
                            "weight": -0.4495081890368072
                        }
                    ]
                },
                {
                    "Weights": [
                        {
                            "weight": -0.4142812566500911
                        },
                        {
                            "weight": -0.477779162650563
                        },
                        {
                            "weight": 0.2730458441919603
                        },
                        {
                            "weight": -0.5075634564658703
                        },
                        {
                            "weight": 0.07715175532654128
                        },
                        {
                            "weight": 0.28980331184846947
                        },
                        {
                            "weight": -0.09016194749899564
                        },
                        {
                            "weight": -0.3702872551167742
                        },
                        {
                            "weight": 0.08037076569073318
                        },
                        {
                            "weight": -0.25295343224458094
                        }
                    ]
                },
                {
                    "Weights": [
                        {
                            "weight": -0.06812141507032488
                        },
                        {
                            "weight": 0.11218965860076177
                        },
                        {
                            "weight": 0.10276817300034215
                        },
                        {
                            "weight": -0.31305138957227346
                        },
                        {
                            "weight": -0.35551683583576726
                        },
                        {
                            "weight": 0.3652741504728585
                        },
                        {
                            "weight": 0.016889960485184086
                        },
                        {
                            "weight": 0.5148018576346504
                        },
                        {
                            "weight": -0.3844600262458277
                        },
                        {
                            "weight": -0.4856493853557622
                        }
                    ]
                },
                {
                    "Weights": [
                        {
                            "weight": 0.5921269196421088
                        },
                        {
                            "weight": -0.5332686375115866
                        },
                        {
                            "weight": -0.5934851044386735
                        },
                        {
                            "weight": -0.684110778364509
                        },
                        {
                            "weight": -0.07291804786082914
                        },
                        {
                            "weight": 0.3620261490281506
                        },
                        {
                            "weight": 0.0034252040909929058
                        },
                        {
                            "weight": 0.0902390850592992
                        },
                        {
                            "weight": 0.4912873457166139
                        },
                        {
                            "weight": -0.09585244957918444
                        }
                    ]
                },
                {
                    "Weights": [
                        {
                            "weight": 0.25265604392626356
                        },
                        {
                            "weight": 0.3673378585066106
                        },
                        {
                            "weight": 0.3970527180739329
                        },
                        {
                            "weight": 0.3169897053519887
                        },
                        {
                            "weight": 0.1771645538645019
                        },
                        {
                            "weight": 0.4796059961646971
                        },
                        {
                            "weight": 0.26535997692366725
                        },
                        {
                            "weight": 0.34614629820321163
                        },
                        {
                            "weight": 0.10193299004364009
                        },
                        {
                            "weight": 0.263733902957197
                        }
                    ]
                },
                {
                    "Weights": [
                        {
                            "weight": -0.2745266268453369
                        },
                        {
                            "weight": 0.27857403102298905
                        },
                        {
                            "weight": -0.022501674230604198
                        },
                        {
                            "weight": -0.0973487164165917
                        },
                        {
                            "weight": 0.192562526228044
                        },
                        {
                            "weight": 0.2612267286915399
                        },
                        {
                            "weight": 0.3851081545307486
                        },
                        {
                            "weight": -0.5528764021546481
                        },
                        {
                            "weight": -0.18401595643515933
                        },
                        {
                            "weight": 0.06578250166348723
                        }
                    ]
                },
                {
                    "Weights": [
                        {
                            "weight": 0.08938104586608528
                        },
                        {
                            "weight": 0.019300087886344585
                        },
                        {
                            "weight": 0.07694706152601112
                        },
                        {
                            "weight": 0.0633120697791771
                        },
                        {
                            "weight": 0.10111179373536235
                        },
                        {
                            "weight": 0.1066524325854966
                        },
                        {
                            "weight": -0.42025409399195673
                        },
                        {
                            "weight": 0.18856303257174925
                        },
                        {
                            "weight": -0.4095023630778067
                        },
                        {
                            "weight": 0.49065107752342024
                        }
                    ]
                },
                {
                    "Weights": [
                        {
                            "weight": 0.2869453900340741
                        },
                        {
                            "weight": 0.21420829555835186
                        },
                        {
                            "weight": -0.32966062409273195
                        },
                        {
                            "weight": 0.441773686337844
                        },
                        {
                            "weight": 0.29643475905165545
                        },
                        {
                            "weight": 0.4546321382113579
                        },
                        {
                            "weight": -0.19882534476840646
                        },
                        {
                            "weight": -0.27853804145242983
                        },
                        {
                            "weight": -0.46181711716767126
                        },
                        {
                            "weight": 0.21999205444710845
                        }
                    ]
                },
                {
                    "Weights": [
                        {
                            "weight": 0.21010471070480685
                        },
                        {
                            "weight": 0.47745122005134744
                        },
                        {
                            "weight": 0.14422280134613863
                        },
                        {
                            "weight": -0.16203824825443153
                        },
                        {
                            "weight": 0.11379442284237186
                        },
                        {
                            "weight": -0.1107839845726604
                        },
                        {
                            "weight": 0.03399345981226731
                        },
                        {
                            "weight": 0.07451315369467394
                        },
                        {
                            "weight": -0.09916462885772248
                        },
                        {
                            "weight": 0.0905630997876502
                        }
                    ]
                },
                {
                    "Weights": [
                        {
                            "weight": -0.5333024145095827
                        },
                        {
                            "weight": -0.22986398649304673
                        },
                        {
                            "weight": 0.14202654071313464
                        },
                        {
                            "weight": -0.6859788026439918
                        },
                        {
                            "weight": -0.2895508733578249
                        },
                        {
                            "weight": -0.359039447295074
                        },
                        {
                            "weight": 0.09240660638313238
                        },
                        {
                            "weight": 0.22019620990430655
                        },
                        {
                            "weight": -0.011618482666599273
                        },
                        {
                            "weight": 0.2680604104663589
                        }
                    ]
                },
                {
                    "Weights": [
                        {
                            "weight": -0.34901996512187616
                        },
                        {
                            "weight": 0.402339510910061
                        },
                        {
                            "weight": 0.2950179421528077
                        },
                        {
                            "weight": -0.1601946451634289
                        },
                        {
                            "weight": 0.2322936148562143
                        },
                        {
                            "weight": -0.47577611575828366
                        },
                        {
                            "weight": 0.08252652338409949
                        },
                        {
                            "weight": -0.10422584223931698
                        },
                        {
                            "weight": 0.2551172574528918
                        },
                        {
                            "weight": -0.4106663640847372
                        }
                    ]
                },
                {
                    "Weights": [
                        {
                            "weight": 0.29197148527489936
                        },
                        {
                            "weight": -0.3294764152690313
                        },
                        {
                            "weight": -0.0504956182236408
                        },
                        {
                            "weight": 0.049987758882775436
                        },
                        {
                            "weight": 0.3674497913585092
                        },
                        {
                            "weight": -0.15838141492882568
                        },
                        {
                            "weight": -0.39377192240991327
                        },
                        {
                            "weight": -0.4287357262629925
                        },
                        {
                            "weight": 0.5506844950115722
                        },
                        {
                            "weight": -0.664842065356058
                        }
                    ]
                },
                {
                    "Weights": [
                        {
                            "weight": 0.2789544199486974
                        },
                        {
                            "weight": 0.03577081314693893
                        },
                        {
                            "weight": 0.055825084200866404
                        },
                        {
                            "weight": 0.017187677407315458
                        },
                        {
                            "weight": 0.11903366628547239
                        },
                        {
                            "weight": 0.2579446260974697
                        },
                        {
                            "weight": -0.24799462646284873
                        },
                        {
                            "weight": 0.3585643644031348
                        },
                        {
                            "weight": -0.3723534374552153
                        },
                        {
                            "weight": -0.4109536251609942
                        }
                    ]
                },
                {
                    "Weights": [
                        {
                            "weight": 0.1509369545841189
                        },
                        {
                            "weight": -0.12712772050333115
                        },
                        {
                            "weight": 0.17277439621057789
                        },
                        {
                            "weight": 0.17275936741511888
                        },
                        {
                            "weight": -0.30534025239793433
                        },
                        {
                            "weight": 0.09019641405265584
                        },
                        {
                            "weight": 0.186628979017002
                        },
                        {
                            "weight": -0.42396281953991255
                        },
                        {
                            "weight": -0.2992846274343603
                        },
                        {
                            "weight": -0.3779886110788779
                        }
                    ]
                },
                {
                    "Weights": [
                        {
                            "weight": 0.4304943416835745
                        },
                        {
                            "weight": 0.5162333253989176
                        },
                        {
                            "weight": -0.1721983988331095
                        },
                        {
                            "weight": 0.25703086946671366
                        },
                        {
                            "weight": -0.4969207855298244
                        },
                        {
                            "weight": -0.22126521160670212
                        },
                        {
                            "weight": -0.213439456104416
                        },
                        {
                            "weight": -0.6429578728519385
                        },
                        {
                            "weight": 0.019156286923203886
                        },
                        {
                            "weight": 0.06233888104616875
                        }
                    ]
                },
                {
                    "Weights": [
                        {
                            "weight": -0.08613335108968218
                        },
                        {
                            "weight": -0.4487567562522512
                        },
                        {
                            "weight": -0.07422010488924238
                        },
                        {
                            "weight": 0.3558493851479409
                        },
                        {
                            "weight": 0.39350826131166033
                        },
                        {
                            "weight": -0.2140715104869527
                        },
                        {
                            "weight": 0.35884689153292465
                        },
                        {
                            "weight": 0.09114803433213813
                        },
                        {
                            "weight": -0.15336577373489055
                        },
                        {
                            "weight": 0.2422975388672652
                        }
                    ]
                },
                {
                    "Weights": [
                        {
                            "weight": 0.41262028215693347
                        },
                        {
                            "weight": 0.33230762019906945
                        },
                        {
                            "weight": 0.04551224227905691
                        },
                        {
                            "weight": -0.16711716894374296
                        },
                        {
                            "weight": -0.36499561430096455
                        },
                        {
                            "weight": -0.1954180484745883
                        },
                        {
                            "weight": -0.24951288330671417
                        },
                        {
                            "weight": 0.3922385625259723
                        },
                        {
                            "weight": 0.25995827916584524
                        },
                        {
                            "weight": 0.27121778569610383
                        }
                    ]
                },
                {
                    "Weights": [
                        {
                            "weight": 0.3389441079641823
                        },
                        {
                            "weight": 0.22393623226736795
                        },
                        {
                            "weight": 0.15751456942776998
                        },
                        {
                            "weight": -0.2753770345110383
                        },
                        {
                            "weight": -0.46987053001929363
                        },
                        {
                            "weight": -0.3398797689792573
                        },
                        {
                            "weight": -0.6455359146270517
                        },
                        {
                            "weight": 0.21993038220417885
                        },
                        {
                            "weight": -0.2850437537902535
                        },
                        {
                            "weight": 0.28202211704400487
                        }
                    ]
                },
                {
                    "Weights": [
                        {
                            "weight": 0.45842972902046647
                        },
                        {
                            "weight": 0.1852228124839525
                        },
                        {
                            "weight": 0.43086492223882905
                        },
                        {
                            "weight": 0.2918658611861578
                        },
                        {
                            "weight": -0.04741821124815606
                        },
                        {
                            "weight": 0.34722954525575234
                        },
                        {
                            "weight": 0.21550626950124607
                        },
                        {
                            "weight": 0.07629091199506974
                        },
                        {
                            "weight": -0.4167125529560133
                        },
                        {
                            "weight": -0.17754072138427746
                        }
                    ]
                },
                {
                    "Weights": [
                        {
                            "weight": 0.43299651392046834
                        },
                        {
                            "weight": 0.3384562726261329
                        },
                        {
                            "weight": 0.4405249372787953
                        },
                        {
                            "weight": -0.367806336328617
                        },
                        {
                            "weight": 0.08670990430207606
                        },
                        {
                            "weight": -0.4026691881618327
                        },
                        {
                            "weight": 0.17834098428144526
                        },
                        {
                            "weight": 0.4566844655432704
                        },
                        {
                            "weight": 0.03336624540471633
                        },
                        {
                            "weight": -0.05694922209792282
                        }
                    ]
                },
                {
                    "Weights": [
                        {
                            "weight": 0.20827982846089227
                        },
                        {
                            "weight": -0.06492196721480667
                        },
                        {
                            "weight": -0.36223856578574426
                        },
                        {
                            "weight": -0.5627254479631698
                        },
                        {
                            "weight": -0.3766943471622324
                        },
                        {
                            "weight": -0.3056197818461217
                        },
                        {
                            "weight": -0.40996141395058217
                        },
                        {
                            "weight": 0.6408309766228812
                        },
                        {
                            "weight": -0.36850418326346723
                        },
                        {
                            "weight": 0.3199741186535223
                        }
                    ]
                },
                {
                    "Weights": [
                        {
                            "weight": 0.15817524614418899
                        },
                        {
                            "weight": 0.5163225878250576
                        },
                        {
                            "weight": -0.6561091266999255
                        },
                        {
                            "weight": 0.13066830884917774
                        },
                        {
                            "weight": -0.16202854569802452
                        },
                        {
                            "weight": 0.4549876941237095
                        },
                        {
                            "weight": -0.34944947034998647
                        },
                        {
                            "weight": -0.23649853153111897
                        },
                        {
                            "weight": 0.2729371269222412
                        },
                        {
                            "weight": 0.1322490588126898
                        }
                    ]
                },
                {
                    "Weights": [
                        {
                            "weight": 0.4540853378088793
                        },
                        {
                            "weight": -0.4960859412599846
                        },
                        {
                            "weight": 0.26422562126639054
                        },
                        {
                            "weight": -0.3857697091883516
                        },
                        {
                            "weight": -0.5995351028001176
                        },
                        {
                            "weight": 0.2870540386554073
                        },
                        {
                            "weight": -0.12222911805128067
                        },
                        {
                            "weight": 0.45194386511944157
                        },
                        {
                            "weight": 0.2985248336803837
                        },
                        {
                            "weight": 0.19025123417899537
                        }
                    ]
                },
                {
                    "Weights": [
                        {
                            "weight": -0.24649973040293535
                        },
                        {
                            "weight": -0.18298500730966022
                        },
                        {
                            "weight": 0.43424616960727175
                        },
                        {
                            "weight": -0.05621121622905809
                        },
                        {
                            "weight": 0.48509195629276036
                        },
                        {
                            "weight": -0.23624999393670182
                        },
                        {
                            "weight": -0.08338665000953562
                        },
                        {
                            "weight": 0.22086477944242278
                        },
                        {
                            "weight": 0.1947177260447478
                        },
                        {
                            "weight": -0.2555966669796562
                        }
                    ]
                },
                {
                    "Weights": [
                        {
                            "weight": 0.43424112106701623
                        },
                        {
                            "weight": -0.4066712949080076
                        },
                        {
                            "weight": 0.23202635107943373
                        },
                        {
                            "weight": -0.4593066228153615
                        },
                        {
                            "weight": 0.47438511300836833
                        },
                        {
                            "weight": 0.22036373440748006
                        },
                        {
                            "weight": -0.4470106100198175
                        },
                        {
                            "weight": -0.2696075079447922
                        },
                        {
                            "weight": -0.4435407019919491
                        },
                        {
                            "weight": -0.05217385973257292
                        }
                    ]
                },
                {
                    "Weights": [
                        {
                            "weight": -0.2562424237946527
                        },
                        {
                            "weight": 0.15092030915748522
                        },
                        {
                            "weight": -0.5628855777613585
                        },
                        {
                            "weight": 0.3205110435931596
                        },
                        {
                            "weight": -0.524875927058983
                        },
                        {
                            "weight": -0.07048357224910246
                        },
                        {
                            "weight": -0.26164826415319203
                        },
                        {
                            "weight": 0.5046494599022693
                        },
                        {
                            "weight": -0.16505327027532543
                        },
                        {
                            "weight": 0.3928364697183838
                        }
                    ]
                },
                {
                    "Weights": [
                        {
                            "weight": 0.11194472094283936
                        },
                        {
                            "weight": 0.44576086997676595
                        },
                        {
                            "weight": 0.028298450376494255
                        },
                        {
                            "weight": -0.2376112239803165
                        },
                        {
                            "weight": 0.10107825641406869
                        },
                        {
                            "weight": 0.000589447462853214
                        },
                        {
                            "weight": 0.18744137895544571
                        },
                        {
                            "weight": 0.32343621616563256
                        },
                        {
                            "weight": -0.3948505116225686
                        },
                        {
                            "weight": 0.20484913619290113
                        }
                    ]
                },
                {
                    "Weights": [
                        {
                            "weight": -0.4807941741993252
                        },
                        {
                            "weight": -0.2377855245872309
                        },
                        {
                            "weight": 0.17584639675131195
                        },
                        {
                            "weight": -0.07285198749815185
                        },
                        {
                            "weight": 0.04991977997554272
                        },
                        {
                            "weight": 0.467226653504431
                        },
                        {
                            "weight": -0.3509846914828397
                        },
                        {
                            "weight": -0.06902347453312097
                        },
                        {
                            "weight": 0.10847963504462035
                        },
                        {
                            "weight": -0.6182236820227346
                        }
                    ]
                },
                {
                    "Weights": [
                        {
                            "weight": -0.47377026022251567
                        },
                        {
                            "weight": -0.5454070537209749
                        },
                        {
                            "weight": 0.08249484713941525
                        },
                        {
                            "weight": 0.01065081720703889
                        },
                        {
                            "weight": 0.49163422356421504
                        },
                        {
                            "weight": -0.3333913465666361
                        },
                        {
                            "weight": 0.49260426904438687
                        },
                        {
                            "weight": -0.6305644576727105
                        },
                        {
                            "weight": 0.19389796460212427
                        },
                        {
                            "weight": 0.46676359194786327
                        }
                    ]
                },
                {
                    "Weights": [
                        {
                            "weight": -0.49298880553883645
                        },
                        {
                            "weight": 0.1661790121694821
                        },
                        {
                            "weight": 0.1140544718358862
                        },
                        {
                            "weight": -0.214731733605092
                        },
                        {
                            "weight": -0.07647369508943894
                        },
                        {
                            "weight": 0.272305261357829
                        },
                        {
                            "weight": 0.6162919830262897
                        },
                        {
                            "weight": -0.1269693978910089
                        },
                        {
                            "weight": -0.44112413069702316
                        },
                        {
                            "weight": 0.10236960619544458
                        }
                    ]
                },
                {
                    "Weights": [
                        {
                            "weight": -0.4507293936009795
                        },
                        {
                            "weight": -0.4655218153270995
                        },
                        {
                            "weight": 0.2606785973547729
                        },
                        {
                            "weight": 0.44401448028043156
                        },
                        {
                            "weight": 0.16211013563922944
                        },
                        {
                            "weight": -0.06221764263164622
                        },
                        {
                            "weight": -0.11716632390179942
                        },
                        {
                            "weight": 0.009320325195843861
                        },
                        {
                            "weight": 0.29183919333679575
                        },
                        {
                            "weight": 0.3097831847122954
                        }
                    ]
                },
                {
                    "Weights": [
                        {
                            "weight": -0.25451453115400935
                        },
                        {
                            "weight": -0.5096820101465123
                        },
                        {
                            "weight": 0.19771645439672733
                        },
                        {
                            "weight": -0.17153796389812284
                        },
                        {
                            "weight": 0.43229307574087433
                        },
                        {
                            "weight": 0.4789897166038823
                        },
                        {
                            "weight": -0.3715930647986083
                        },
                        {
                            "weight": -0.007015297414269654
                        },
                        {
                            "weight": -0.36416027960892433
                        },
                        {
                            "weight": -0.17989928405222608
                        }
                    ]
                },
                {
                    "Weights": [
                        {
                            "weight": -0.48510799575216124
                        },
                        {
                            "weight": -0.20207321015265958
                        },
                        {
                            "weight": -0.763752069130201
                        },
                        {
                            "weight": 0.4586616095575938
                        },
                        {
                            "weight": -0.0919517993236215
                        },
                        {
                            "weight": 0.638153154924697
                        },
                        {
                            "weight": -0.2821403282255741
                        },
                        {
                            "weight": -0.22872437938394996
                        },
                        {
                            "weight": 0.25743401733244375
                        },
                        {
                            "weight": 0.1496368063062046
                        }
                    ]
                },
                {
                    "Weights": [
                        {
                            "weight": -0.5697330531100339
                        },
                        {
                            "weight": 0.25980718685634063
                        },
                        {
                            "weight": 0.14508898735327916
                        },
                        {
                            "weight": 0.3763088008304089
                        },
                        {
                            "weight": -0.3576950099494722
                        },
                        {
                            "weight": -0.314052259515774
                        },
                        {
                            "weight": -0.3464141690174805
                        },
                        {
                            "weight": 0.16945878405470713
                        },
                        {
                            "weight": -0.35016638551260887
                        },
                        {
                            "weight": -0.06176489181080263
                        }
                    ]
                },
                {
                    "Weights": [
                        {
                            "weight": 0.43592341449670025
                        },
                        {
                            "weight": 0.22090847631555685
                        },
                        {
                            "weight": -0.049612043092266564
                        },
                        {
                            "weight": -0.4689161841756333
                        },
                        {
                            "weight": -0.2501351894844924
                        },
                        {
                            "weight": -0.24616650751119104
                        },
                        {
                            "weight": -0.5773698234926358
                        },
                        {
                            "weight": -0.3094253578753681
                        },
                        {
                            "weight": -0.00030849614162804475
                        },
                        {
                            "weight": 0.005865925238441408
                        }
                    ]
                },
                {
                    "Weights": [
                        {
                            "weight": 0.308297539599656
                        },
                        {
                            "weight": -0.11199631760170518
                        },
                        {
                            "weight": -0.1335121562086497
                        },
                        {
                            "weight": 0.42237169570962046
                        },
                        {
                            "weight": -0.2849968371227333
                        },
                        {
                            "weight": -0.43140870390635855
                        },
                        {
                            "weight": 0.39361681946772953
                        },
                        {
                            "weight": -0.3965408701609009
                        },
                        {
                            "weight": 0.3119202175723619
                        },
                        {
                            "weight": -0.20365820541674326
                        }
                    ]
                },
                {
                    "Weights": [
                        {
                            "weight": -0.5011486979430781
                        },
                        {
                            "weight": -0.3180359478363978
                        },
                        {
                            "weight": -0.49119582884944213
                        },
                        {
                            "weight": -0.07241840764794788
                        },
                        {
                            "weight": -0.24382581662109162
                        },
                        {
                            "weight": 0.15992330436283334
                        },
                        {
                            "weight": -0.2864189599957557
                        },
                        {
                            "weight": 0.105311858166112
                        },
                        {
                            "weight": -0.24639157433760092
                        },
                        {
                            "weight": 0.11159313476794568
                        }
                    ]
                },
                {
                    "Weights": [
                        {
                            "weight": 0.25897404739953345
                        },
                        {
                            "weight": 0.05592558257119617
                        },
                        {
                            "weight": -0.3460759053912324
                        },
                        {
                            "weight": 0.14302741042465306
                        },
                        {
                            "weight": 0.2783851752314443
                        },
                        {
                            "weight": -0.38143710843660544
                        },
                        {
                            "weight": 0.1702062756403055
                        },
                        {
                            "weight": 0.3941314115665696
                        },
                        {
                            "weight": 0.1886961812681043
                        },
                        {
                            "weight": -0.11740436525257893
                        }
                    ]
                },
                {
                    "Weights": [
                        {
                            "weight": -0.5034502104865874
                        },
                        {
                            "weight": -0.46812715015570344
                        },
                        {
                            "weight": -0.43712515397013885
                        },
                        {
                            "weight": -0.48017612314807556
                        },
                        {
                            "weight": -0.1669363754647678
                        },
                        {
                            "weight": -0.09437999626697811
                        },
                        {
                            "weight": -0.29214316506099025
                        },
                        {
                            "weight": -0.47956768382325193
                        },
                        {
                            "weight": -0.1871661790779792
                        },
                        {
                            "weight": -0.4687386050086927
                        }
                    ]
                },
                {
                    "Weights": [
                        {
                            "weight": -0.5685198780778413
                        },
                        {
                            "weight": 0.24850982038639094
                        },
                        {
                            "weight": 0.4537415255009314
                        },
                        {
                            "weight": -0.2420217388336518
                        },
                        {
                            "weight": 0.013866658355437064
                        },
                        {
                            "weight": -0.3338670017372986
                        },
                        {
                            "weight": -0.06429656800553715
                        },
                        {
                            "weight": -0.04155194230831437
                        },
                        {
                            "weight": 0.13303602651692797
                        },
                        {
                            "weight": -0.24336720438966863
                        }
                    ]
                },
                {
                    "Weights": [
                        {
                            "weight": 0.10873380764752061
                        },
                        {
                            "weight": 0.317319178744913
                        },
                        {
                            "weight": -0.355840281126362
                        },
                        {
                            "weight": -0.5693458203918239
                        },
                        {
                            "weight": -0.48764938333744234
                        },
                        {
                            "weight": 0.0979543092875694
                        },
                        {
                            "weight": 0.24512974907203094
                        },
                        {
                            "weight": -0.23055044123755322
                        },
                        {
                            "weight": 0.22548693820552593
                        },
                        {
                            "weight": -0.21216633444559857
                        }
                    ]
                },
                {
                    "Weights": [
                        {
                            "weight": -0.25479332814343963
                        },
                        {
                            "weight": -0.13113194734509712
                        },
                        {
                            "weight": -0.5583182989692801
                        },
                        {
                            "weight": -0.38188354149452997
                        },
                        {
                            "weight": -0.6158870310791373
                        },
                        {
                            "weight": 0.41527610610477056
                        },
                        {
                            "weight": 0.49616615160890254
                        },
                        {
                            "weight": -0.1737397040662423
                        },
                        {
                            "weight": 0.5406409493174501
                        },
                        {
                            "weight": -0.5103821418910124
                        }
                    ]
                },
                {
                    "Weights": [
                        {
                            "weight": -0.2795460749030858
                        },
                        {
                            "weight": -0.3707910337967131
                        },
                        {
                            "weight": 0.2957356444023486
                        },
                        {
                            "weight": 0.309437552601632
                        },
                        {
                            "weight": 0.22845844618563596
                        },
                        {
                            "weight": 0.3605894318793025
                        },
                        {
                            "weight": -0.5224746723435699
                        },
                        {
                            "weight": -0.5143467782167278
                        },
                        {
                            "weight": 0.4848485350643586
                        },
                        {
                            "weight": 0.09028425212710477
                        }
                    ]
                },
                {
                    "Weights": [
                        {
                            "weight": -0.3836479663136724
                        },
                        {
                            "weight": -0.3546619253757633
                        },
                        {
                            "weight": 0.25649072244664045
                        },
                        {
                            "weight": 0.29955452857418224
                        },
                        {
                            "weight": 0.09089833790897334
                        },
                        {
                            "weight": 0.40947117055558424
                        },
                        {
                            "weight": -0.11130875129093243
                        },
                        {
                            "weight": 0.17177592545341472
                        },
                        {
                            "weight": -0.337497441262588
                        },
                        {
                            "weight": 0.3948539522826458
                        }
                    ]
                },
                {
                    "Weights": [
                        {
                            "weight": 0.5037891070647541
                        },
                        {
                            "weight": -0.3859620956865461
                        },
                        {
                            "weight": 0.4084454275856706
                        },
                        {
                            "weight": -0.35062699563714084
                        },
                        {
                            "weight": -0.1518766504098549
                        },
                        {
                            "weight": 0.3738409080618452
                        },
                        {
                            "weight": -0.4874792837836613
                        },
                        {
                            "weight": -0.4288347667161339
                        },
                        {
                            "weight": -0.25724398176706154
                        },
                        {
                            "weight": -0.1680741723388894
                        }
                    ]
                },
                {
                    "Weights": [
                        {
                            "weight": -0.5591078933144923
                        },
                        {
                            "weight": 0.12435329037257069
                        },
                        {
                            "weight": 0.2223872198070338
                        },
                        {
                            "weight": -0.1863241715834309
                        },
                        {
                            "weight": -0.300737446974307
                        },
                        {
                            "weight": 0.3157402403888599
                        },
                        {
                            "weight": -0.6069084353056575
                        },
                        {
                            "weight": 0.4423978671505721
                        },
                        {
                            "weight": -0.31131672099266966
                        },
                        {
                            "weight": 0.28254488728429583
                        }
                    ]
                },
                {
                    "Weights": [
                        {
                            "weight": 0.4004145816164794
                        },
                        {
                            "weight": 0.2230236050712627
                        },
                        {
                            "weight": 0.3919994626464823
                        },
                        {
                            "weight": 0.26006175892136174
                        },
                        {
                            "weight": 0.3059606166925018
                        },
                        {
                            "weight": 0.07314654055216704
                        },
                        {
                            "weight": -0.4164218760716641
                        },
                        {
                            "weight": 0.1429578834602611
                        },
                        {
                            "weight": 0.4117610057644603
                        },
                        {
                            "weight": -0.15085363044941452
                        }
                    ]
                },
                {
                    "Weights": [
                        {
                            "weight": 0.5611832906683636
                        },
                        {
                            "weight": -0.0585683136475318
                        },
                        {
                            "weight": -0.563349416338863
                        },
                        {
                            "weight": -0.4665760150708903
                        },
                        {
                            "weight": 0.16713558610891902
                        },
                        {
                            "weight": 0.08390742018532638
                        },
                        {
                            "weight": 0.03309590590987449
                        },
                        {
                            "weight": -0.2543362227594484
                        },
                        {
                            "weight": 0.3384174417962452
                        },
                        {
                            "weight": -0.013269451795380104
                        }
                    ]
                },
                {
                    "Weights": [
                        {
                            "weight": 0.038374417157330636
                        },
                        {
                            "weight": -0.5384924827591506
                        },
                        {
                            "weight": -0.6303968983715494
                        },
                        {
                            "weight": -0.544043943098042
                        },
                        {
                            "weight": -0.6615354539348438
                        },
                        {
                            "weight": 0.19530308105958843
                        },
                        {
                            "weight": 0.024154085476831764
                        },
                        {
                            "weight": -0.19468746756469094
                        },
                        {
                            "weight": -0.22269407932737267
                        },
                        {
                            "weight": 0.27326832985150584
                        }
                    ]
                },
                {
                    "Weights": [
                        {
                            "weight": -0.27620804991096454
                        },
                        {
                            "weight": 0.09334208874584878
                        },
                        {
                            "weight": 0.43010886683508714
                        },
                        {
                            "weight": -0.01261400586366771
                        },
                        {
                            "weight": -0.07752410192211885
                        },
                        {
                            "weight": 0.10591061597561272
                        },
                        {
                            "weight": -0.48080531312354535
                        },
                        {
                            "weight": -0.41417744567265796
                        },
                        {
                            "weight": -0.26439689629768987
                        },
                        {
                            "weight": 0.1045174500294343
                        }
                    ]
                },
                {
                    "Weights": [
                        {
                            "weight": 0.4356713651394016
                        },
                        {
                            "weight": 0.5712277361852401
                        },
                        {
                            "weight": -0.6606240697801053
                        },
                        {
                            "weight": -0.6560704551057832
                        },
                        {
                            "weight": -0.2561321283255334
                        },
                        {
                            "weight": 0.1046911473287961
                        },
                        {
                            "weight": 0.18998923210457594
                        },
                        {
                            "weight": -0.14804484280205507
                        },
                        {
                            "weight": -0.17375443046384598
                        },
                        {
                            "weight": 0.4801331496946631
                        }
                    ]
                },
                {
                    "Weights": [
                        {
                            "weight": 0.2783289711090486
                        },
                        {
                            "weight": -0.5257322418492331
                        },
                        {
                            "weight": 0.3146503912467513
                        },
                        {
                            "weight": 0.16277850183297232
                        },
                        {
                            "weight": -0.07497730000096721
                        },
                        {
                            "weight": 0.5769751963142183
                        },
                        {
                            "weight": 0.3707083552715934
                        },
                        {
                            "weight": 0.00673611306080849
                        },
                        {
                            "weight": -0.5842413435422221
                        },
                        {
                            "weight": -0.5442793278184465
                        }
                    ]
                },
                {
                    "Weights": [
                        {
                            "weight": 0.5601155368536406
                        },
                        {
                            "weight": -0.5842094023400394
                        },
                        {
                            "weight": -0.3770945531804404
                        },
                        {
                            "weight": -0.023274592441970415
                        },
                        {
                            "weight": -0.0005968719060900856
                        },
                        {
                            "weight": -0.7754840536833579
                        },
                        {
                            "weight": -0.17609875886874354
                        },
                        {
                            "weight": 0.3881834207896531
                        },
                        {
                            "weight": -0.6391256137562487
                        },
                        {
                            "weight": -0.010040871098963998
                        }
                    ]
                },
                {
                    "Weights": [
                        {
                            "weight": 0.4823832774794179
                        },
                        {
                            "weight": 0.11546161684216154
                        },
                        {
                            "weight": -0.08855100627204644
                        },
                        {
                            "weight": -0.3862742676183958
                        },
                        {
                            "weight": -0.39002231394622133
                        },
                        {
                            "weight": -0.26669172480778125
                        },
                        {
                            "weight": 0.020685433515771578
                        },
                        {
                            "weight": -0.05753225615147933
                        },
                        {
                            "weight": 0.14396272773445165
                        },
                        {
                            "weight": 0.16216861323818932
                        }
                    ]
                },
                {
                    "Weights": [
                        {
                            "weight": 0.053373120107025156
                        },
                        {
                            "weight": -0.31929576953689887
                        },
                        {
                            "weight": -0.04958198314449364
                        },
                        {
                            "weight": -0.26598776486641007
                        },
                        {
                            "weight": -0.4666196451353632
                        },
                        {
                            "weight": -0.1968667063897016
